FANN_FLO_2.0
num_layers=3
learning_rate=0.000010
connection_rate=1.000000
shortcut_connections=0
learning_momentum=0.000000
training_algorithm=2
train_error_function=1
train_stop_function=0
cascade_output_change_fraction=0.010000
quickprop_decay=-0.000100
quickprop_mu=1.750000
rprop_increase_factor=1.200000
rprop_decrease_factor=0.500000
rprop_delta_min=0.000000
rprop_delta_max=50.000000
rprop_delta_zero=0.500000
cascade_output_stagnation_epochs=12
cascade_candidate_change_fraction=0.010000
cascade_candidate_stagnation_epochs=12
cascade_max_out_epochs=150
cascade_max_cand_epochs=150
cascade_num_candidate_groups=2
bit_fail_limit=3.49999994039535522461e-01
cascade_candidate_limit=1.00000000000000000000e+03
cascade_weight_multiplier=4.00000005960464477539e-01
cascade_activation_functions_count=6
cascade_activation_functions=3 5 7 8 10 11 
cascade_activation_steepnesses_count=4
cascade_activation_steepnesses=2.50000000000000000000e-01 5.00000000000000000000e-01 7.50000000000000000000e-01 1.00000000000000000000e+00 
layer_sizes=4 9 3 
neurons (num_inputs, activation_function, activation_steepness)=(0, 0, 0.00000000000000000000e+00) (0, 0, 0.00000000000000000000e+00) (0, 0, 0.00000000000000000000e+00) (0, 0, 0.00000000000000000000e+00) (4, 5, 5.00000000000000000000e-01) (4, 5, 5.00000000000000000000e-01) (4, 5, 5.00000000000000000000e-01) (4, 5, 5.00000000000000000000e-01) (4, 5, 5.00000000000000000000e-01) (4, 5, 5.00000000000000000000e-01) (4, 5, 5.00000000000000000000e-01) (4, 5, 5.00000000000000000000e-01) (0, 5, 0.00000000000000000000e+00) (9, 3, 5.00000000000000000000e-01) (9, 3, 5.00000000000000000000e-01) (0, 3, 0.00000000000000000000e+00) 
connections (connected_to_neuron, weight)=(0, 1.92017865180969238281e+00) (1, 5.45990347862243652344e-01) (2, -1.01179337501525878906e+00) (3, -1.40187039971351623535e-01) (0, -3.59974408149719238281e+00) (1, 1.12681365013122558594e+00) (2, 1.99416410923004150391e+00) (3, 3.87092739343643188477e-01) (0, 2.46327668428421020508e-01) (1, 6.88662886619567871094e-01) (2, 2.45604813098907470703e-02) (3, -3.28106641769409179688e-01) (0, 1.91101408004760742188e+00) (1, 5.97935080528259277344e-01) (2, -1.01196265220642089844e+00) (3, -1.08079783618450164795e-01) (0, 3.87083649635314941406e+00) (1, -1.99140727519989013672e+00) (2, -3.50505423545837402344e+00) (3, 1.28546983003616333008e-01) (0, 6.78501653671264648438e+00) (1, -2.16050171852111816406e+00) (2, -2.04008126258850097656e+00) (3, -6.79408550262451171875e-01) (0, 1.85847938060760498047e+00) (1, 5.32130122184753417969e-01) (2, -1.00889229774475097656e+00) (3, -1.16451397538185119629e-01) (0, 3.97321867942810058594e+00) (1, -1.18908619880676269531e+00) (2, -5.26555490493774414062e+00) (3, 1.64786785840988159180e-01) (4, 8.69612336158752441406e-01) (5, -6.91233694553375244141e-01) (6, 9.54905271530151367188e-01) (7, 8.61711680889129638672e-01) (8, 1.94261801242828369141e+00) (9, 2.00013852119445800781e+00) (10, 7.35508859157562255859e-01) (11, 2.24872946739196777344e+00) (12, -1.86984133720397949219e+00) (4, -8.49345922470092773438e-01) (5, 6.91085040569305419922e-01) (6, -9.54836249351501464844e-01) (7, -8.78485083580017089844e-01) (8, -1.94162106513977050781e+00) (9, -2.00015521049499511719e+00) (10, -7.38798320293426513672e-01) (11, -2.24953436851501464844e+00) (12, 1.86990904808044433594e+00) 
